\data\
ngram 1=366
ngram 2=746
ngram 3=858

\1-grams:
-2.9134054	<unk>	0
0	<s>	-0.4149087
-2.066671	</s>	0
-2.8057637	48	-0.055568874
-1.584974	)	-0.21857643
-2.8057637	Conditions	-0.055568874
-1.4194458	of	-0.1700072
-2.8057637	Work	-0.055568874
-2.8057637	Applicable	-0.055568874
-1.362216	to	-0.13257383
-2.8057637	Female	-0.055568874
-2.6753628	Civil	-0.11324876
-2.8057637	Servants	-0.055568874
-2.6753628	1	-0.11324876
-2.6753628	Any	-0.07773027
-2.1404777	government	-0.6846564
-2.8057637	institution	-0.0555689
-1.9485449	shall	-0.22178403
-2.6753628	take	-0.0555689
-2.4928262	affirmative	-0.09315881
-2.8057637	actions	-0.055568874
-2.229449	that	-0.055568874
-2.8057637	enable	-0.055568874
-2.3414707	female	-1.0453795
-1.9485449	civil	-1.1422895
-2.8057637	servants	-0.0555689
-2.8057637	improve	-0.055568874
-2.3414707	their	-0.055568874
-2.8057637	competence	-0.055568874
-1.5423585	and	-0.10997731
-2.8057637	assume	-0.055568874
-2.8057637	decision	-0.055568874
-2.8057637	making	-0.055568874
-2.8057637	positions	-0.055568874
-1.6579387	.	-1.1617777
-2.8057637	2	-0.055568874
-2.8057637	Women	-0.055568874
-2.3414707	be	-0.055568874
-2.8057637	entitled	-0.055568874
-1.8996872	in	-0.10108363
-2.6753628	recruitment	-0.055568874
-1.5631438	,	-0.065981
-2.6753628	promotion	-0.055568874
-2.8057637	transfer	-0.055568874
-2.8057637	redeployment	-0.055568874
-2.8057637	education	-0.055568874
-2.8057637	training	-0.055568874
-2.8057637	3	-0.055568874
-2.8057637	It	-0.055568874
-2.3414707	is	-0.055568874
-2.8057637	prohibited	-0.055568874
-2.8057637	assign	-0.055568874
-1.8158969	a	-0.070216775
-2.8057637	pregnant	-0.055568874
-2.8057637	servant	-0.055568874
-2.3414707	position	-0.055568874
-2.066671	other	-0.256278
-2.8057637	than	-0.055568874
-1.60796	the	-0.12390883
-2.6753628	she	-0.055568874
-2.8057637	assumed	-0.055568874
-2.8057637	through	-0.055568874
-1.6579387	or	-0.061970342
-1.6322308	;	-0.92891526
-2.8057637	provided	-0.055568874
-2.8057637	however	-0.055568874
-2.6753628	where	-0.055568874
-2.8057637	so	-0.055568874
-2.8057637	recommended	-0.055568874
-1.9485449	by	-0.22017756
-2.3414707	medical	-0.083451934
-2.8057637	certificate	-0.055568874
-2.8057637	due	-0.055568874
-2.8057637	risk	-0.055568874
-2.4928262	her	-0.0555689
-2.4928262	health	-0.0555689
-2.8057637	fetus	-0.055568874
-2.8057637	transferred	-0.055568874
-2.8057637	another	-0.055568874
-2.6753628	place	-0.11324876
-2.4928262	work	-0.055568874
-2.8057637	4	-0.055568874
-2.3414707	not	-0.055568874
-2.6753628	discharge	-0.055568874
-2.6753628	way	-0.055568874
-2.8057637	retrenchment	-0.055568874
-2.6753628	pursuant	-0.11324876
-2.6753628	Article	-0.055568874
-2.8057637	87	-0.055568874
-2.8057637	this	-0.055568874
-2.8057637	Proclamation	-0.055568874
-2.8057637	during	-0.055568874
-2.8057637	pregnancy	-0.055568874
-2.6753628	within	-0.055568874
-2.8057637	four	-0.055568874
-2.8057637	months	-0.055568874
-2.8057637	after	-0.055568874
-2.8057637	delivery	-0.055568874
-2.8057637	5	-0.055568874
-2.8057637	when	-0.055568874
-2.8057637	confirmed	-0.055568874
-2.8057637	entitle	-0.055568874
-2.8057637	leave	-0.055568874
-2.003604	with	-0.21596444
-2.8057637	pay	-0.055568874
-2.066671	for	-0.36797678
-2.8057637	time	-0.055568874
-2.8057637	spent	-0.055568874
-2.8057637	follow	-0.055568874
-2.8057637	up	-0.055568874
-2.6753628	treatment	-0.11324876
-2.8057637	child	-0.055568874
-2.6753628	who	-0.055568874
-2.8057637	has	-0.055568874
-2.8057637	attained	-0.055568874
-2.8057637	age	-0.055568874
-2.8057637	one	-0.055568874
-2.8057637	year	-0.055568874
-2.8057637	6	-0.055568874
-2.8057637	establish	-0.055568874
-2.8057637	nursery	-0.055568874
-2.8057637	could	-0.055568874
-2.8057637	breastfeed	-0.055568874
-2.8057637	care	-0.055568874
-2.8057637	babies	-0.055568874
-2.8057637	details	-0.055568874
-2.6753628	its	-0.055568874
-2.6753628	implementation	-0.055568874
-2.8057637	determined	-0.055568874
-2.6753628	directives	-0.055568874
-2.4928262	issued	-0.09315881
-2.8057637	appropriate	-0.055568874
-2.8057637	49	-0.055568874
-2.6753628	Persons	-0.11324876
-2.8057637	Disabilities	-0.055568874
-2.8057637	disabilities	-0.055568874
-2.6753628	ensure	-0.11324876
-2.6753628	working	-0.11324876
-2.8057637	environment	-0.055568874
-2.6753628	conducive	-0.055568874
-2.4928262	provide	-0.0555689
-2.4928262	them	-0.0555689
-2.6753628	necessary	-0.055568874
-2.6753628	tools	-0.11324876
-2.8057637	materials	-0.055568874
-2.8057637	train	-0.055568874
-2.8057637	how	-0.055568874
-2.4928262	use	-0.0555689
-2.6753628	such	-0.055568874
-2.4928262	have	-0.055568874
-2.8057637	responsibility	-0.055568874
-2.6753628	person	-0.055568874
-2.8057637	proper	-0.055568874
-2.8057637	assistant	-0.055568874
-2.8057637	those	-0.055568874
-2.6753628	disability	-0.055568874
-2.8057637	requires	-0.055568874
-2.8057637	assistance	-0.055568874
-2.8057637	Privileges	-0.055568874
-2.8057637	prescribed	-0.055568874
-2.4928262	laws	-0.0555689
-2.8057637	persons	-0.055568874
-2.8057637	applicable	-0.055568874
-2.8057637	50	-0.055568874
-2.8057637	Minority	-0.055568874
-2.6753628	Nations	-0.055568874
-2.8057637	Nationalities	-0.055568874
-2.8057637	Peoples	-0.055568874
-2.8057637	The	-0.055568874
-2.8057637	placement	-0.055568874
-2.229449	personnel	-0.3726127
-2.8057637	into	-0.055568874
-2.8057637	account	-0.055568874
-2.8057637	fair	-0.055568874
-2.8057637	representation	-0.055568874
-2.8057637	nations	-0.055568874
-2.8057637	nationalities	-0.055568874
-2.8057637	peoples	-0.055568874
-2.4928262	having	-0.0555689
-2.8057637	lesser	-0.055568874
-2.8057637	representations	-0.055568874
-2.8057637	given	-0.055568874
-2.8057637	advantage	-0.055568874
-2.8057637	action	-0.055568874
-2.8057637	51	-0.055568874
-2.8057637	Personnel	-0.055568874
-2.8057637	Records	-0.055568874
-2.6753628	Ministry	-0.11324876
-2.8057637	keep	-0.055568874
-2.8057637	relevant	-0.055568874
-2.8057637	data	-0.055568874
-2.8057637	organized	-0.055568874
-2.8057637	modern	-0.055568874
-2.8057637	regarding	-0.055568874
-2.6753628	each	-0.11324876
-2.8057637	temporary	-0.055568874
-2.8057637	employee	-0.055568874
-2.8057637	register	-0.055568874
-2.8057637	human	-0.055568874
-2.8057637	resource	-0.055568874
-2.6753628	information	-0.055568874
-2.8057637	sent	-0.055568874
-2.8057637	it	-0.055568874
-2.8057637	sub-article	-0.055568874
-2.8057637	(	-0.055568874
-2.8057637	upon	-0.055568874
-2.8057637	ascertaining	-0.055568874
-2.8057637	compliance	-0.055568874
-2.6753628	provisions	-0.11324876
-2.8057637	right	-0.055568874
-2.6753628	access	-0.11324876
-2.8057637	all	-0.055568874
-2.8057637	contained	-0.055568874
-1.8158969	his	-0.07128219
-2.8057637	records	-0.055568874
-2.8057637	copy	-0.055568874
-2.8057637	thereof	-0.055568874
-2.8057637	concerned	-0.055568874
-2.8057637	administrative	-0.055568874
-2.8057637	staff	-0.055568874
-2.4928262	without	-0.0555689
-2.8057637	consent	-0.055568874
-2.8057637	unless	-0.055568874
-2.8057637	authorized	-0.055568874
-2.8057637	court	-0.055568874
-2.8057637	order	-0.055568874
-2.8057637	provision	-0.055568874
-2.8057637	law	-0.055568874
-2.8057637	deposit	-0.055568874
-2.066671	any	-0.07128219
-2.8057637	document	-0.055568874
-2.8057637	which	-0.055568874
-2.8057637	made	-0.055568874
-2.8057637	known	-0.055568874
-2.8057637	informed	-0.055568874
-2.8057637	him	-0.055568874
-2.8057637	52	-0.055568874
-2.8057637	Responsibilities	-0.055568874
-2.6753628	Government	-0.055568874
-2.8057637	Institutions	-0.055568874
-2.8057637	prejudice	-0.055568874
-2.8057637	responsibilities	-0.055568874
-2.6753628	:	-0.11324876
-2.8057637	make	-0.055568874
-2.8057637	fully	-0.055568874
-2.8057637	aware	-0.055568874
-2.6753628	policies	-0.055568874
-2.8057637	strategies	-0.055568874
-2.8057637	free	-0.055568874
-2.6753628	from	-0.055568874
-2.8057637	form	-0.055568874
-2.8057637	religious	-0.055568874
-2.8057637	practices	-0.055568874
-2.8057637	activities	-0.055568874
-2.6753628	job	-0.09315881
-2.8057637	description	-0.055568874
-2.8057637	evaluate	-0.055568874
-2.8057637	performance	-0.055568874
-2.8057637	based	-0.055568874
-2.4928262	on	-0.0555689
-2.8057637	plans	-0.055568874
-2.8057637	proved	-0.055568874
-2.8057637	appliances	-0.055568874
-2.8057637	orient	-0.055568874
-2.8057637	about	-0.055568874
-2.8057637	usages	-0.055568874
-2.8057637	create	-0.055568874
-2.6753628	safety	-0.055568874
-2.8057637	54	-0.055568874
-2.8057637	Obligations	-0.055568874
-2.8057637	following	-0.055568874
-2.8057637	obligations	-0.055568874
-2.8057637	loyal	-0.055568874
-2.8057637	public	-0.055568874
-2.8057637	Constitution	-0.055568874
-2.8057637	respect	-0.055568874
-2.8057637	effectively	-0.055568874
-2.8057637	execute	-0.055568874
-2.8057637	serve	-0.055568874
-2.8057637	country	-0.055568874
-2.8057637	bias	-0.055568874
-2.8057637	devote	-0.055568874
-2.8057637	whole	-0.055568874
-2.8057637	energy	-0.055568874
-2.8057637	ability	-0.055568874
-2.6753628	service	-0.055568874
-2.8057637	functions	-0.055568874
-2.8057637	specified	-0.055568874
-2.8057637	lawful	-0.055568874
-2.8057637	orders	-0.055568874
-2.8057637	immediate	-0.055568874
-2.8057637	supervisor	-0.055568874
-2.8057637	reserved	-0.055568874
-2.8057637	exercising	-0.055568874
-2.6753628	activity	-0.055568874
-2.6753628	practice	-0.055568874
-2.8057637	reflecting	-0.055568874
-2.8057637	own	-0.055568874
-2.8057637	faith	-0.055568874
-2.6753628	religion	-0.055568874
-2.8057637	at	-0.055568874
-2.8057637	7	-0.055568874
-2.8057637	disclose	-0.055568874
-2.8057637	confidential	-0.055568874
-2.8057637	matters	-0.055568874
-2.8057637	classified	-0.055568874
-2.4928262	as	-0.09315881
-2.8057637	8	-0.055568874
-2.8057637	avoid	-0.055568874
-2.6753628	discriminatory	-0.055568874
-2.8057637	clients	-0.055568874
-2.8057637	basis	-0.055568874
-2.8057637	gender	-0.055568874
-2.8057637	language	-0.055568874
-2.8057637	ethnicity	-0.055568874
-2.6753628	political	-0.055568874
-2.8057637	stand	-0.055568874
-2.8057637	physical	-0.055568874
-2.8057637	forms	-0.055568874
-2.8057637	differentiations	-0.055568874
-2.8057637	9	-0.055568874
-2.8057637	engage	-0.055568874
-2.8057637	compromise	-0.055568874
-2.8057637	otherwise	-0.055568874
-2.8057637	conflict	-0.055568874
-2.8057637	duties	-0.055568874
-2.8057637	incompatible	-0.055568874
-2.8057637	status	-0.055568874
-2.8057637	10	-0.055568874
-2.8057637	advance	-0.055568874
-2.8057637	interest	-0.055568874
-2.8057637	thereby	-0.055568874
-2.8057637	exercise	-0.055568874
-2.8057637	11	-0.055568874
-2.8057637	solicit	-0.055568874
-2.8057637	accept	-0.055568874
-2.8057637	gift	-0.055568874
-2.8057637	present	-0.055568874
-2.8057637	value	-0.055568874
-2.8057637	consideration	-0.055568874
-2.8057637	he	-0.055568874
-2.8057637	renders	-0.055568874
-2.8057637	expected	-0.055568874
-2.8057637	render	-0.055568874
-2.8057637	12	-0.055568874
-2.8057637	properly	-0.055568874
-2.8057637	handle	-0.055568874
-2.8057637	equipment	-0.055568874
-2.8057637	implements	-0.055568874
-2.8057637	supplied	-0.055568874
-2.8057637	purpose	-0.055568874
-2.8057637	doing	-0.055568874
-2.8057637	13	-0.055568874
-2.8057637	submit	-0.055568874
-2.6753628	examination	-0.055568874
-2.8057637	HIV	-0.055568874
-2.8057637	/	-0.055568874
-2.8057637	AIDS	-0.055568874
-2.8057637	required	-0.055568874
-2.8057637	sufficient	-0.055568874
-2.8057637	grounds	-0.055568874
-2.8057637	related	-0.055568874
-2.8057637	14	-0.055568874
-2.8057637	observe	-0.055568874
-2.8057637	occupational	-0.055568874
-2.8057637	rules	-0.055568874

\2-grams:
-0.89397514	Servants </s>	0
-0.03384981	. </s>	0
-0.06053981	; </s>	0
-0.89397514	Disabilities </s>	0
-0.89397514	Records </s>	0
-0.89397514	Institutions </s>	0
-0.6268192	: </s>	0
-2.4691918	<s> 48	-0.056522254
-0.84471107	48 )	-0.056522254
-0.60280347	1 )	-0.09997323
-0.84471107	2 )	-0.056522254
-0.84471107	3 )	-0.11864866
-0.84471107	4 )	-0.11864866
-0.84471107	5 )	-0.056522254
-0.84471107	6 )	-0.056522254
-0.84471107	49 )	-0.056522254
-0.84471107	50 )	-0.056522254
-0.84471107	51 )	-0.056522254
-0.84471107	52 )	-0.056522254
-0.84471107	54 )	-0.056522254
-0.84471107	7 )	-0.056522254
-0.84471107	8 )	-0.056522254
-0.84471107	9 )	-0.056522254
-0.84471107	10 )	-0.056522254
-0.84471107	11 )	-0.056522254
-0.84471107	12 )	-0.056522254
-0.84471107	13 )	-0.056522254
-0.84471107	14 )	-0.056522254
-1.1743295	) Conditions	-0.064351775
-1.5847619	) of	-0.056522254
-0.8136092	Conditions of	-0.064351775
-0.5869224	place of	-0.23254368
-1.0289671	way of	-0.056522254
-0.8136092	87 of	-0.056522254
-0.8136092	up of	-0.056522254
-0.5869224	treatment of	-0.056522254
-0.8136092	age of	-0.056522254
-0.8136092	care of	-0.056522254
-0.8136092	details of	-0.056522254
-1.0289671	implementation of	-0.23254368
-0.8136092	placement of	-0.056522254
-0.8136092	representation of	-0.056522254
-0.8136092	advantage of	-0.056522254
-0.5869224	provisions of	-0.23254368
-1.0289671	records of	-0.23254368
-0.8136092	provision of	-0.056522254
-0.8136092	Responsibilities of	-0.056522254
-0.8136092	aware of	-0.056522254
-0.8136092	form of	-0.056522254
-1.0289671	safety of	-0.056522254
-0.8136092	Obligations of	-0.056522254
-1.1970791	service of	-0.056522254
-0.8136092	orders of	-0.056522254
-0.8136092	matters of	-0.056522254
-0.8136092	basis of	-0.056522254
-0.8136092	forms of	-0.056522254
-0.8136092	consideration of	-0.056522254
-0.8136092	purpose of	-0.056522254
-2.3070023	of Work	-0.064351775
-0.91549313	Work Applicable	-0.064351775
-0.8004703	Applicable to	-0.056522254
-1.2348475	servants to	-0.056522254
-1.4070129	and to	-0.056522254
-0.8004703	entitled to	-0.23254368
-0.8004703	prohibited to	-0.056522254
-1.2738729	servant to	-0.056522254
-1.1659644	position to	-0.056522254
-1.1893731	or to	-0.056522254
-0.8004703	due to	-0.056522254
-0.8004703	risk to	-0.056522254
-0.8004703	transferred to	-0.056522254
-0.5800464	pursuant to	-0.056522254
-0.8004703	entitle to	-0.056522254
-1.0075986	directives to	-0.056522254
-1.0075986	environment to	-0.056522254
-1.0075986	conducive to	-0.056522254
-0.8004703	how to	-0.056522254
-0.8004703	responsibility to	-0.056522254
-1.1065259	laws to	-0.056522254
-0.8004703	sent to	-0.056522254
-0.8004703	right to	-0.056522254
-0.5800464	access to	-0.056522254
-0.8004703	informed to	-0.056522254
-0.8004703	prejudice to	-0.056522254
-0.8004703	responsibilities to	-0.056522254
-1.0075986	description to	-0.056522254
-0.8004703	appliances to	-0.056522254
-0.8004703	loyal to	-0.056522254
-0.8004703	ability to	-0.056522254
-1.1659644	service to	-0.056522254
-0.8004703	expected to	-0.056522254
-0.8004703	supplied to	-0.056522254
-0.8004703	related to	-0.056522254
-2.3734381	to Female	-0.056522254
-2.2755592	of Civil	-0.056522254
-0.9137736	Female Civil	-0.056522254
-0.6368715	Civil Servants	-0.23254368
-0.879532	<s> 1	-0.36538178
-0.9137736	( 1	-0.056522254
-2.4430406	<s> Any	-0.056522254
-0.84689045	) Any	-0.23651065
-2.0571659	of government	-0.056522254
-1.5218464	Any government	-0.36538178
-1.4346108	a government	-0.23254368
-1.1359373	the government	-0.064351775
-0.8980067	appropriate government	-0.056522254
-1.6326666	any government	-0.056522254
-0.11148107	government institution	-0.27029517
-1.523993	institution shall	-0.13567555
-0.8860227	Women shall	-0.056522254
-1.6034732	servant shall	-0.16562681
-1.155163	she shall	-0.056522254
-1.155163	who shall	-0.056522254
-1.155163	implementation shall	-0.056522254
-1.155163	disabilities shall	-0.23254368
-0.6230369	Ministry shall	-0.056522254
-0.8860227	staff shall	-0.056522254
-2.0568147	shall take	-0.056522254
-2.1488276	and take	-0.056522254
-2.2183974	of affirmative	-0.056522254
-2.2636998	to affirmative	-0.23254368
-1.3679111	take affirmative	-0.056522254
-0.81166965	affirmative actions	-0.16562681
-1.1854861	actions that	-0.056522254
-1.9672142	, that	-0.056522254
-0.63063467	ensure that	-0.23254368
-1.1854861	disability that	-0.056522254
-1.1854861	activity that	-0.056522254
-1.5952169	that enable	-0.056522254
-1.5554903	Any female	-0.056522254
-0.90618366	enable female	-0.056522254
-1.9250985	a female	-0.056522254
-1.1934096	where female	-0.056522254
-1.9398521	of civil	-0.056522254
-1.6975086	to civil	-0.23254368
-0.9946988	Any civil	-0.23254368
-0.04051225	female civil	-0.23254368
-1.3959657	a civil	-0.18929052
-0.8860227	pregnant civil	-0.056522254
-0.8860227	those civil	-0.056522254
-0.6230369	each civil	-0.23254368
-0.8860227	make civil	-0.056522254
-0.33340585	civil servants	-0.09997323
-2.3734381	to improve	-0.056522254
-2.157757	of their	-0.056522254
-0.90618366	improve their	-0.056522254
-0.90618366	ascertaining their	-0.056522254
-0.90618366	about their	-0.056522254
-1.503039	their competence	-0.056522254
-1.3443197	institution and	-0.056522254
-1.3443197	servants and	-0.056522254
-0.8376045	competence and	-0.056522254
-0.8376045	education and	-0.064351775
-1.3952117	servant and	-0.056522254
-1.1852609	health and	-0.056522254
-1.2575488	Proclamation and	-0.056522254
-0.8376045	breastfeed and	-0.056522254
-0.59922385	tools and	-0.23254368
-1.0690956	materials and	-0.056522254
-1.1852609	use and	-0.056522254
-1.1852609	laws and	-0.056522254
-0.8376045	Nationalities and	-0.056522254
-0.8376045	nationalities and	-0.23254368
-0.8376045	strategies and	-0.056522254
-1.0690956	description and	-0.056522254
-1.0690956	safety and	-0.056522254
-1.0690956	public and	-0.23254368
-0.8376045	Constitution and	-0.056522254
-0.8376045	energy and	-0.056522254
-0.8376045	interest and	-0.056522254
-0.8376045	equipment and	-0.056522254
-2.3734381	to assume	-0.056522254
-0.91549313	assume decision	-0.056522254
-0.91549313	decision making	-0.056522254
-0.91549313	making positions	-0.056522254
-1.4049559	institution .	-0.056522254
-1.4049559	servants .	-0.056522254
-0.8555938	positions .	-0.056522254
-0.8555938	training .	-0.16562681
-1.306557	work .	-0.056522254
-1.306557	Proclamation .	-0.23254368
-0.8555938	delivery .	-0.056522254
-0.8555938	year .	-0.056522254
-1.1002133	materials .	-0.056522254
-0.8555938	assistance .	-0.056522254
-0.8555938	Peoples .	-0.056522254
-1.1002133	peoples .	-0.056522254
-0.8555938	employee .	-0.056522254
-0.8555938	thereof .	-0.056522254
-1.1002133	law .	-0.056522254
-1.1002133	him .	-0.056522254
-0.8555938	rules .	-0.056522254
-0.88022584	<s> 2	-0.36538178
-2.4036112	) Women	-0.056522254
-1.8467698	) be	-0.056522254
-2.1913412	to be	-0.056522254
-0.5335564	shall be	-0.107657276
-2.0162563	, be	-0.056522254
-1.83206	be entitled	-0.23254368
-1.1479019	actions in	-0.23254368
-0.88210046	spent in	-0.056522254
-1.532202	personnel in	-0.056522254
-0.88210046	action in	-0.056522254
-0.88210046	organized in	-0.056522254
-0.88210046	contained in	-0.056522254
-0.88210046	document in	-0.056522254
-0.88210046	specified in	-0.056522254
-0.88210046	engage in	-0.056522254
-0.88210046	value in	-0.056522254
-1.3225682	in recruitment	-0.064351775
-0.9137736	through recruitment	-0.056522254
-1.6213269	shall ,	-0.056522254
-1.0751433	recruitment ,	-0.064351775
-1.0751433	promotion ,	-0.064351775
-0.8411433	transfer ,	-0.064351775
-0.8411433	redeployment ,	-0.064351775
-0.8411433	provided ,	-0.056522254
-0.8411433	however ,	-0.056522254
-1.0751433	certificate ,	-0.056522254
-0.8411433	fetus ,	-0.056522254
-1.266918	Proclamation ,	-0.056522254
-1.0751433	disabilities ,	-0.056522254
-1.0751433	Nations ,	-0.056522254
-0.8411433	nations ,	-0.056522254
-1.0751433	policies ,	-0.056522254
-1.0751433	religion ,	-0.056522254
-0.8411433	gender ,	-0.056522254
-0.8411433	language ,	-0.056522254
-0.8411433	ethnicity ,	-0.056522254
-0.8411433	stand ,	-0.056522254
-1.0751433	examination ,	-0.056522254
-0.8411433	AIDS ,	-0.056522254
-2.1230125	, promotion	-0.064351775
-2.0508113	or promotion	-0.056522254
-2.1510222	, transfer	-0.064351775
-2.1510222	, redeployment	-0.064351775
-2.1510222	, education	-0.064351775
-2.1756525	and training	-0.064351775
-0.964565	<s> 3	-0.28620052
-1.9057946	) It	-0.23254368
-0.90618366	It is	-0.23254368
-1.9580305	or is	-0.056522254
-1.1934096	environment is	-0.056522254
-0.90618366	which is	-0.056522254
-1.5952169	is prohibited	-0.23254368
-1.8886119	to assign	-0.23254368
-1.8475822	of a	-0.23254368
-1.8434701	to a	-0.056522254
-1.2364663	in a	-0.056522254
-0.8743606	assign a	-0.056522254
-1.6922381	or a	-0.056522254
-1.2203215	by a	-0.056522254
-1.133734	discharge a	-0.056522254
-1.133734	within a	-0.056522254
-0.8743606	establish a	-0.056522254
-1.4263735	have a	-0.056522254
-1.2718168	having a	-0.056522254
-0.7815832	as a	-0.23254368
-2.0297704	a pregnant	-0.056522254
-0.33340585	civil servant	-0.08592403
-1.9250985	a position	-0.056522254
-2.1868005	the position	-0.056522254
-0.90618366	another position	-0.056522254
-1.9050136	his position	-0.056522254
-2.0268648	to other	-0.056522254
-1.8831521	, other	-0.056522254
-1.4251257	position other	-0.056522254
-1.8385931	or other	-0.056522254
-1.7325723	by other	-0.056522254
-1.1700599	person other	-0.056522254
-1.6119635	any other	-0.056522254
-0.42254844	other than	-0.16562681
-0.87262636	of the	-0.056522254
-0.7883936	to the	-0.056522254
-0.85657585	and the	-0.056522254
-1.1840968	in the	-0.056522254
-1.0874975	than the	-0.056522254
-2.0187557	; the	-0.056522254
-0.5112334	by the	-0.056522254
-1.0874975	discharge the	-0.056522254
-1.2153324	with the	-0.056522254
-0.2752942	for the	-0.13567555
-0.84830844	attained the	-0.056522254
-1.33988	have the	-0.056522254
-0.84830844	given the	-0.056522254
-0.84830844	register the	-0.056522254
-1.2094659	on the	-0.056522254
-0.84830844	respect the	-0.056522254
-0.84830844	execute the	-0.056522254
-0.84830844	serve the	-0.056522254
-0.84830844	at the	-0.056522254
-2.1230125	, she	-0.056522254
-1.4964244	position she	-0.056522254
-1.211631	she assumed	-0.056522254
-0.91549313	assumed through	-0.056522254
-1.4049559	institution or	-0.056522254
-1.1002133	recruitment or	-0.056522254
-1.4640144	servant or	-0.056522254
-1.306557	position or	-0.056522254
-1.2263861	health or	-0.056522254
-0.8555938	pregnancy or	-0.056522254
-1.1002133	disability or	-0.056522254
-1.1002133	records or	-0.056522254
-0.8555938	order or	-0.056522254
-0.8555938	known or	-0.056522254
-0.8555938	practices or	-0.056522254
-1.1002133	activity or	-0.056522254
-0.8555938	faith or	-0.056522254
-0.8555938	duties or	-0.056522254
-0.8555938	solicit or	-0.056522254
-0.8555938	gift or	-0.056522254
-0.8555938	renders or	-0.056522254
-1.0938088	promotion ;	-0.056522254
-1.4493542	servant ;	-0.23254368
-1.2963029	work ;	-0.056522254
-0.85193586	babies ;	-0.056522254
-1.0938088	such ;	-0.056522254
-1.2178435	laws ;	-0.056522254
-1.0938088	law ;	-0.056522254
-1.0938088	Government ;	-0.056522254
-0.85193586	activities ;	-0.056522254
-1.230221	job ;	-0.056522254
-0.85193586	plans ;	-0.056522254
-0.85193586	usages ;	-0.056522254
-1.0938088	public ;	-0.056522254
-0.85193586	bias ;	-0.056522254
-1.2963029	service ;	-0.056522254
-0.85193586	supervisor ;	-0.056522254
-1.0938088	practice ;	-0.056522254
-0.85193586	differentiations ;	-0.056522254
-2.163886	; provided	-0.056522254
-2.1510222	, however	-0.056522254
-1.5870528	that where	-0.056522254
-0.9137736	nursery where	-0.056522254
-1.211631	where so	-0.056522254
-0.91549313	so recommended	-0.056522254
-1.6034732	servant by	-0.056522254
-1.7740254	or by	-0.056522254
-0.8860227	recommended by	-0.056522254
-0.8860227	confirmed by	-0.056522254
-0.8860227	determined by	-0.056522254
-0.79019094	issued by	-0.23254368
-0.8860227	prescribed by	-0.056522254
-0.8860227	authorized by	-0.056522254
-0.8860227	required by	-0.056522254
-2.157757	of medical	-0.056522254
-1.9250985	a medical	-0.056522254
-1.7934783	by medical	-0.056522254
-1.718737	for medical	-0.056522254
-0.93531907	medical certificate	-0.056522254
-1.211631	certificate due	-0.056522254
-2.371061	the risk	-0.056522254
-2.2183974	of her	-0.056522254
-2.2636998	to her	-0.056522254
-0.91033065	during her	-0.056522254
-2.099359	and health	-0.056522254
-2.259911	the health	-0.056522254
-1.3679111	her health	-0.056522254
-2.371061	the fetus	-0.056522254
-1.83206	be transferred	-0.056522254
-2.3734381	to another	-0.056522254
-2.3309479	the place	-0.056522254
-2.0508113	or place	-0.056522254
-2.2183974	of work	-0.056522254
-1.2014804	necessary work	-0.056522254
-1.3679111	on work	-0.056522254
-0.964565	<s> 4	-0.28620052
-1.0280468	) not	-0.056522254
-1.5027121	shall not	-0.056522254
-1.5523895	is not	-0.056522254
-0.90618366	has not	-0.056522254
-2.3686347	) discharge	-0.056522254
-1.7728553	not discharge	-0.056522254
-1.8351461	by way	-0.056522254
-0.9137736	modern way	-0.056522254
-2.3070023	of retrenchment	-0.056522254
-0.9137736	retrenchment pursuant	-0.056522254
-0.9137736	it pursuant	-0.056522254
-2.333876	to Article	-0.056522254
-1.208237	this Article	-0.056522254
-1.211631	Article 87	-0.056522254
-0.926404	of this	-0.23847237
-1.211631	this Proclamation	-0.11864866
-1.503039	Proclamation during	-0.056522254
-1.3828846	her pregnancy	-0.056522254
-2.0508113	or within	-0.056522254
-0.9137736	representations within	-0.056522254
-1.211631	within four	-0.056522254
-0.91549313	four months	-0.056522254
-0.91549313	months after	-0.056522254
-0.91549313	after delivery	-0.056522254
-1.0693285	<s> 5	-0.18929052
-1.6344314	, when	-0.056522254
-1.211631	when confirmed	-0.056522254
-1.83206	be entitle	-0.056522254
-2.3734381	to leave	-0.056522254
-1.5414581	servants with	-0.056522254
-0.88998073	leave with	-0.056522254
-0.62492394	Persons with	-0.056522254
-1.311927	them with	-0.056522254
-0.88998073	persons with	-0.056522254
-0.88998073	compliance with	-0.056522254
-0.88998073	conflict with	-0.056522254
-0.88998073	incompatible with	-0.056522254
-1.88734	with pay	-0.056522254
-0.89397514	pay for	-0.056522254
-1.3283105	issued for	-0.056522254
-0.89397514	assistant for	-0.056522254
-0.89397514	applicable for	-0.056522254
-1.1700599	him for	-0.056522254
-0.89397514	submit for	-0.056522254
-1.1700599	examination for	-0.056522254
-2.371061	the time	-0.056522254
-0.91549313	time spent	-0.056522254
-2.371061	the follow	-0.056522254
-0.91549313	follow up	-0.056522254
-1.4980011	medical treatment	-0.056522254
-1.208237	discriminatory treatment	-0.056522254
-1.3828846	her child	-0.056522254
-0.9137736	child who	-0.056522254
-1.208237	person who	-0.056522254
-1.211631	who has	-0.056522254
-1.785442	not attained	-0.056522254
-2.371061	the age	-0.056522254
-2.3070023	of one	-0.056522254
-0.91549313	one year	-0.056522254
-1.9477751	<s> 6	-0.23254368
-2.073397	shall establish	-0.056522254
-2.0297704	a nursery	-0.056522254
-1.669717	servants could	-0.056522254
-0.91549313	could breastfeed	-0.056522254
-1.3828846	take care	-0.056522254
-1.503039	their babies	-0.056522254
-2.371061	the details	-0.056522254
-2.2755592	of its	-0.056522254
-1.5870528	that its	-0.23254368
-2.3309479	the implementation	-0.23254368
-1.208237	its implementation	-0.056522254
-1.83206	be determined	-0.056522254
-2.1488276	and directives	-0.056522254
-1.8351461	by directives	-0.056522254
-1.7911892	be issued	-0.056522254
-1.2014804	directives issued	-0.056522254
-1.2014804	policies issued	-0.056522254
-2.371061	the appropriate	-0.056522254
-2.4691918	<s> 49	-0.056522254
-2.3686347	) Persons	-0.056522254
-2.333876	to Persons	-0.056522254
-1.88734	with Disabilities	-0.056522254
-0.5768855	with disabilities	-0.16562681
-2.3686347	) ensure	-0.056522254
-2.0568147	shall ensure	-0.056522254
-1.208237	its working	-0.23254368
-1.208237	conducive working	-0.056522254
-0.6368715	working environment	-0.16562681
-1.5870528	is conducive	-0.056522254
-0.9137736	create conducive	-0.056522254
-2.305731	) provide	-0.056522254
-2.025222	shall provide	-0.056522254
-2.07155	, provide	-0.056522254
-1.3679111	provide them	-0.056522254
-0.91033065	train them	-0.056522254
-0.91033065	orient them	-0.056522254
-2.3309479	the necessary	-0.056522254
-0.9137736	proved necessary	-0.056522254
-1.208237	necessary tools	-0.056522254
-1.208237	such tools	-0.056522254
-2.1756525	and materials	-0.056522254
-2.1756525	and train	-0.056522254
-1.3828846	them how	-0.056522254
-2.2636998	to use	-0.056522254
-1.7485596	not use	-0.056522254
-0.91033065	properly use	-0.056522254
-1.3778595	use such	-0.056522254
-1.3794596	as such	-0.056522254
-2.2636998	to have	-0.056522254
-1.5139735	shall have	-0.13567555
-1.7485596	not have	-0.056522254
-2.371061	the responsibility	-0.056522254
-1.5886068	Any person	-0.056522254
-2.0086217	a person	-0.056522254
-1.3828846	provide proper	-0.056522254
-0.91549313	proper assistant	-0.056522254
-1.7488959	for those	-0.056522254
-1.8763194	with disability	-0.056522254
-0.9137736	physical disability	-0.056522254
-1.5952169	that requires	-0.056522254
-0.91549313	requires assistance	-0.056522254
-2.4036112	) Privileges	-0.056522254
-0.91549313	Privileges prescribed	-0.056522254
-2.099359	and laws	-0.056522254
-1.7226262	other laws	-0.056522254
-2.259911	the laws	-0.056522254
-2.3734381	to persons	-0.056522254
-1.83206	be applicable	-0.056522254
-2.4691918	<s> 50	-0.056522254
-2.3734381	to Minority	-0.056522254
-2.3686347	) Nations	-0.056522254
-0.9137736	Minority Nations	-0.056522254
-1.211631	Nations Nationalities	-0.056522254
-2.1756525	and Peoples	-0.056522254
-1.9057946	) The	-0.056522254
-1.211631	The placement	-0.056522254
-2.1045556	of personnel	-0.056522254
-2.1293342	to personnel	-0.056522254
-2.1242425	the personnel	-0.056522254
-0.90207595	relevant personnel	-0.056522254
-1.8670257	his personnel	-0.056522254
-1.3828846	take into	-0.056522254
-0.91549313	into account	-0.056522254
-0.91549313	account fair	-0.056522254
-0.91549313	fair representation	-0.056522254
-2.3070023	of nations	-0.056522254
-1.6344314	, nationalities	-0.23254368
-2.1756525	and peoples	-0.056522254
-1.2014804	peoples having	-0.056522254
-1.3679111	without having	-0.056522254
-0.91033065	present having	-0.056522254
-1.3828846	having lesser	-0.056522254
-0.91549313	lesser representations	-0.056522254
-1.83206	be given	-0.056522254
-2.371061	the advantage	-0.056522254
-1.3840829	affirmative action	-0.056522254
-2.1687558	. 51	-0.056522254
-2.4036112	) Personnel	-0.056522254
-0.91549313	Personnel Records	-0.056522254
-2.3309479	the Ministry	-0.056522254
-1.208237	The Ministry	-0.056522254
-2.073397	shall keep	-0.056522254
-0.91549313	keep relevant	-0.056522254
-1.6075835	personnel data	-0.056522254
-0.91549313	data organized	-0.056522254
-2.0297704	a modern	-0.056522254
-1.211631	way regarding	-0.056522254
-2.333876	to each	-0.056522254
-0.9137736	regarding each	-0.056522254
-2.074637	or temporary	-0.056522254
-0.91549313	temporary employee	-0.056522254
-2.073397	shall register	-0.056522254
-2.371061	the human	-0.056522254
-0.91549313	human resource	-0.056522254
-0.9137736	resource information	-0.056522254
-0.9137736	all information	-0.056522254
-1.211631	information sent	-0.056522254
-2.3734381	to it	-0.056522254
-2.3734381	to sub-article	-0.056522254
-0.91549313	sub-article (	-0.056522254
-1.211631	Article upon	-0.056522254
-0.91549313	upon ascertaining	-0.056522254
-1.503039	their compliance	-0.056522254
-1.7368791	other provisions	-0.056522254
-2.3309479	the provisions	-0.056522254
-1.5952169	have right	-0.056522254
-2.333876	to access	-0.056522254
-1.5870528	have access	-0.056522254
-2.3734381	to all	-0.056522254
-1.211631	information contained	-0.056522254
-1.8475822	of his	-0.056522254
-1.8434701	to his	-0.056522254
-1.2364663	in his	-0.056522254
-1.2580591	with his	-0.056522254
-1.2718168	use his	-0.056522254
-1.2718168	without his	-0.056522254
-0.8743606	evaluate his	-0.056522254
-0.8743606	devote his	-0.056522254
-0.8743606	reflecting his	-0.056522254
-0.8743606	compromise his	-0.056522254
-0.8743606	advance his	-0.056522254
-0.8743606	doing his	-0.056522254
-0.27687246	personnel records	-0.16562681
-2.0297704	a copy	-0.056522254
-0.91549313	copy thereof	-0.056522254
-2.371061	the concerned	-0.056522254
-0.91549313	concerned administrative	-0.056522254
-0.91549313	administrative staff	-0.056522254
-2.3947134	<s> without	-0.056522254
-1.7485596	servant without	-0.056522254
-0.91033065	country without	-0.056522254
-2.0040956	his consent	-0.056522254
-0.91549313	consent unless	-0.056522254
-0.91549313	unless authorized	-0.056522254
-2.0297704	a court	-0.056522254
-0.91549313	court order	-0.056522254
-2.371061	the provision	-0.056522254
-1.8878322	the law	-0.056522254
-2.3734381	to deposit	-0.056522254
-1.7256961	in any	-0.056522254
-1.8831521	, any	-0.056522254
-1.3225613	having any	-0.056522254
-0.89397514	deposit any	-0.056522254
-1.1700599	from any	-0.056522254
-0.89397514	exercising any	-0.056522254
-0.89397514	accept any	-0.056522254
-1.7331798	any document	-0.056522254
-1.785442	servant which	-0.056522254
-1.785442	not made	-0.056522254
-0.91549313	made known	-0.056522254
-2.074637	or informed	-0.056522254
-1.8886119	to him	-0.056522254
-2.4691918	<s> 52	-0.056522254
-2.4036112	) Responsibilities	-0.056522254
-2.2755592	of Government	-0.056522254
-2.3309479	the Government	-0.056522254
-1.211631	Government Institutions	-0.056522254
-1.3828846	without prejudice	-0.056522254
-1.5952169	have responsibilities	-0.056522254
-2.333876	to :	-0.056522254
-0.9137736	obligations :	-0.056522254
-2.4036112	) make	-0.056522254
-1.669717	servants fully	-0.056522254
-0.91549313	fully aware	-0.056522254
-1.6892238	government policies	-0.056522254
-2.1488276	and policies	-0.056522254
-2.1510222	, strategies	-0.056522254
-1.5952169	is free	-0.056522254
-0.9137736	free from	-0.056522254
-0.9137736	reserved from	-0.056522254
-1.174512	any form	-0.23254368
-2.3070023	of religious	-0.056522254
-0.91549313	religious practices	-0.056522254
-2.074637	or activities	-0.056522254
-1.3778595	provide job	-0.056522254
-1.4611347	his job	-0.056522254
-0.81166965	job description	-0.056522254
-2.1756525	and evaluate	-0.056522254
-2.0040956	his performance	-0.056522254
-0.91549313	performance based	-0.056522254
-1.6411855	institution on	-0.056522254
-0.91033065	based on	-0.056522254
-0.91033065	clients on	-0.056522254
-1.503039	work plans	-0.056522254
-2.4036112	) proved	-0.056522254
-1.503039	work appliances	-0.056522254
-2.1756525	and orient	-0.056522254
-1.3828846	them about	-0.056522254
-1.503039	their usages	-0.056522254
-2.4036112	) create	-0.056522254
-2.1488276	and safety	-0.056522254
-0.9137736	occupational safety	-0.056522254
-2.4691918	<s> 54	-0.056522254
-2.4036112	) Obligations	-0.056522254
-2.371061	the following	-0.056522254
-0.91549313	following obligations	-0.056522254
-1.83206	be loyal	-0.056522254
-1.1620326	the public	-0.16562681
-2.371061	the Constitution	-0.056522254
-2.1756525	and respect	-0.056522254
-2.4036112	) effectively	-0.056522254
-0.91549313	effectively execute	-0.056522254
-2.4036112	) serve	-0.056522254
-2.371061	the country	-0.056522254
-2.3070023	of bias	-0.056522254
-2.4036112	) devote	-0.056522254
-2.0040956	his whole	-0.056522254
-0.91549313	whole energy	-0.056522254
-2.1756525	and ability	-0.056522254
-1.8742348	the service	-0.056522254
-1.4611347	his service	-0.056522254
-2.371061	the functions	-0.056522254
-0.91549313	functions specified	-0.056522254
-2.371061	the lawful	-0.056522254
-0.91549313	lawful orders	-0.056522254
-2.0040956	his immediate	-0.056522254
-0.91549313	immediate supervisor	-0.056522254
-1.83206	be reserved	-0.056522254
-1.211631	from exercising	-0.056522254
-1.7368791	other activity	-0.056522254
-1.7223943	any activity	-0.056522254
-2.0508113	or practice	-0.056522254
-1.208237	discriminatory practice	-0.056522254
-1.211631	practice reflecting	-0.056522254
-2.0040956	his own	-0.056522254
-0.91549313	own faith	-0.056522254
-2.1230125	, religion	-0.056522254
-2.0508113	or religion	-0.056522254
-1.211631	religion at	-0.056522254
-2.4691918	<s> 7	-0.056522254
-1.785442	not disclose	-0.056522254
-0.91549313	disclose confidential	-0.056522254
-0.91549313	confidential matters	-0.056522254
-1.669717	institution classified	-0.056522254
-0.91033065	classified as	-0.056522254
-0.91033065	status as	-0.056522254
-0.91033065	render as	-0.056522254
-2.4691918	<s> 8	-0.056522254
-2.4036112	) avoid	-0.056522254
-0.9137736	avoid discriminatory	-0.056522254
-0.9137736	exercise discriminatory	-0.056522254
-2.3070023	of clients	-0.056522254
-2.371061	the basis	-0.056522254
-2.3070023	of gender	-0.056522254
-2.1510222	, language	-0.056522254
-2.1510222	, ethnicity	-0.056522254
-2.1230125	, political	-0.056522254
-1.9841812	his political	-0.056522254
-1.211631	political stand	-0.056522254
-2.1510222	, physical	-0.056522254
-1.744133	other forms	-0.056522254
-2.3070023	of differentiations	-0.056522254
-2.4691918	<s> 9	-0.056522254
-1.785442	not engage	-0.056522254
-1.5952169	that compromise	-0.056522254
-2.074637	or otherwise	-0.056522254
-0.91549313	otherwise conflict	-0.056522254
-2.0040956	his duties	-0.056522254
-1.5952169	is incompatible	-0.056522254
-2.0040956	his status	-0.056522254
-2.4691918	<s> 10	-0.056522254
-2.3734381	to advance	-0.056522254
-1.211631	political interest	-0.056522254
-2.1756525	and thereby	-0.056522254
-0.91549313	thereby exercise	-0.056522254
-2.4691918	<s> 11	-0.056522254
-1.785442	not solicit	-0.056522254
-2.074637	or accept	-0.056522254
-1.7331798	any gift	-0.056522254
-2.0297704	a present	-0.056522254
-2.0297704	a value	-0.056522254
-1.8777947	in consideration	-0.056522254
-1.503039	service he	-0.056522254
-0.91549313	he renders	-0.056522254
-2.074637	or expected	-0.056522254
-2.3734381	to render	-0.056522254
-2.4691918	<s> 12	-0.056522254
-2.4036112	) properly	-0.056522254
-2.1756525	and handle	-0.056522254
-0.91549313	handle equipment	-0.056522254
-2.1756525	and implements	-0.056522254
-0.91549313	implements supplied	-0.056522254
-2.371061	the purpose	-0.056522254
-2.3070023	of doing	-0.056522254
-2.4691918	<s> 13	-0.056522254
-2.4036112	) submit	-0.056522254
-1.208237	than examination	-0.056522254
-1.4980011	medical examination	-0.056522254
-1.7488959	for HIV	-0.056522254
-0.91549313	HIV /	-0.056522254
-0.91549313	/ AIDS	-0.056522254
-1.211631	when required	-0.056522254
-1.3828846	on sufficient	-0.056522254
-0.91549313	sufficient grounds	-0.056522254
-0.91549313	grounds related	-0.056522254
-2.4691918	<s> 14	-0.056522254
-2.4036112	) observe	-0.056522254
-0.91549313	observe occupational	-0.056522254
-1.3828846	health rules	-0.056522254

\3-grams:
-0.3104046	Civil Servants </s>
-0.029574856	institution . </s>
-0.029574856	servants . </s>
-0.029574856	positions . </s>
-0.041859165	training . </s>
-0.029574856	work . </s>
-0.019494332	Proclamation . </s>
-0.029574856	delivery . </s>
-0.029574856	year . </s>
-0.029574856	materials . </s>
-0.029574856	assistance . </s>
-0.029574856	Peoples . </s>
-0.029574856	peoples . </s>
-0.029574856	employee . </s>
-0.029574856	thereof . </s>
-0.029574856	law . </s>
-0.029574856	him . </s>
-0.029574856	rules . </s>
-0.03440882	servant ; </s>
-0.05268367	work ; </s>
-0.05268367	such ; </s>
-0.05268367	laws ; </s>
-0.05268367	law ; </s>
-0.05268367	Government ; </s>
-0.05268367	activities ; </s>
-0.05268367	job ; </s>
-0.05268367	plans ; </s>
-0.05268367	usages ; </s>
-0.05268367	public ; </s>
-0.05268367	bias ; </s>
-0.05268367	service ; </s>
-0.05268367	supervisor ; </s>
-0.05268367	practice ; </s>
-0.05268367	differentiations ; </s>
-0.630585	with Disabilities </s>
-0.630585	Personnel Records </s>
-0.630585	Government Institutions </s>
-0.48232627	to : </s>
-0.48232627	obligations : </s>
-0.606303	<s> 48 )
-0.1697574	<s> 1 )
-0.46705464	( 1 )
-0.20031047	<s> 2 )
-0.25445083	<s> 3 )
-0.25445083	<s> 4 )
-0.35089928	<s> 5 )
-0.30251002	<s> 6 )
-0.606303	<s> 49 )
-0.606303	<s> 50 )
-0.606303	. 51 )
-0.606303	<s> 52 )
-0.606303	<s> 54 )
-0.606303	<s> 7 )
-0.606303	<s> 8 )
-0.606303	<s> 9 )
-0.606303	<s> 10 )
-0.606303	<s> 11 )
-0.606303	<s> 12 )
-0.606303	<s> 13 )
-0.606303	<s> 14 )
-0.74279463	48 ) Conditions
-0.74279463	49 ) Conditions
-0.74279463	50 ) Conditions
-1.4190772	1 ) of
-0.5683689	) Conditions of
-0.45678797	the place of
-0.45678797	or place of
-0.6900175	by way of
-0.59025395	Article 87 of
-0.59025395	follow up of
-0.45678797	medical treatment of
-0.45678797	discriminatory treatment of
-0.59025395	the age of
-0.59025395	take care of
-0.59025395	the details of
-0.3284954	the implementation of
-0.59025395	The placement of
-0.59025395	fair representation of
-0.59025395	the advantage of
-0.45678797	other provisions of
-0.45678797	the provisions of
-0.46816	personnel records of
-0.59025395	the provision of
-0.59025395	) Responsibilities of
-0.59025395	fully aware of
-0.2971274	any form of
-0.6900175	and safety of
-0.59025395	) Obligations of
-0.93260664	the service of
-0.59025395	lawful orders of
-0.59025395	confidential matters of
-0.59025395	the basis of
-0.59025395	other forms of
-0.59025395	in consideration of
-0.59025395	the purpose of
-0.8477952	Conditions of Work
-0.6153412	of Work Applicable
-0.5618781	Work Applicable to
-1.1959246	civil servants to
-0.80568975	competence and to
-0.29475647	be entitled to
-0.29475647	is prohibited to
-1.261489	civil servant to
-0.7400579	his position to
-0.74762756	health or to
-0.74762756	records or to
-0.583307	certificate due to
-0.583307	the risk to
-0.583307	be transferred to
-0.4523018	retrenchment pursuant to
-0.4523018	it pursuant to
-0.583307	be entitle to
-0.68129456	by directives to
-0.9674376	working environment to
-0.68129456	is conducive to
-0.583307	them how to
-0.583307	the responsibility to
-0.71957386	other laws to
-0.583307	information sent to
-0.583307	have right to
-0.4523018	to access to
-0.4523018	have access to
-0.583307	or informed to
-0.583307	without prejudice to
-0.583307	have responsibilities to
-0.8318244	job description to
-0.583307	work appliances to
-0.583307	be loyal to
-0.583307	and ability to
-0.91747	his service to
-0.583307	or expected to
-0.583307	implements supplied to
-0.583307	grounds related to
-1.3526791	Applicable to Female
-0.8972615	Obligations of Civil
-0.6399505	to Female Civil
-0.48862687	of Civil Servants
-0.48862687	Female Civil Servants
-0.6399505	sub-article ( 1
-0.63550377	1 ) Any
-0.8378954	2 ) Any
-0.56209683	3 ) Any
-0.56209683	4 ) Any
-0.8085053	5 ) Any
-0.73066425	6 ) Any
-0.88695717	aware of government
-0.4015554	) Any government
-1.0301557	in a government
-0.8116089	within a government
-1.0236075	of the government
-1.0729389	to the government
-1.0236075	by the government
-0.63251036	the appropriate government
-0.84621733	, any government
-0.044604838	Any government institution
-0.061747078	a government institution
-0.09432086	the government institution
-0.096241534	appropriate government institution
-0.096241534	any government institution
-0.36405838	government institution shall
-0.6267598	) Women shall
-1.2365286	civil servant shall
-0.7364714	, she shall
-0.7364714	person who shall
-0.7364714	its implementation shall
-0.48922342	with disabilities shall
-0.47994155	the Ministry shall
-0.47994155	The Ministry shall
-0.6267598	administrative staff shall
-0.9583373	institution shall take
-0.8918877	breastfeed and take
-0.8950225	advantage of affirmative
-0.3790473	entitled to affirmative
-1.005904	shall take affirmative
-0.29678112	to affirmative actions
-0.58923465	take affirmative actions
-1.0693972	affirmative actions that
-0.88106763	however , that
-0.48472416	) ensure that
-0.48472416	shall ensure that
-0.7463896	with disability that
-0.7463896	other activity that
-0.8406385	actions that enable
-1.5272015	) Any female
-0.63638675	that enable female
-0.877895	discharge a female
-0.74890506	nursery where female
-0.87903893	safety of civil
-0.8549516	conducive to civil
-0.8549516	appliances to civil
-0.6759054	<s> Any civil
-1.1409824	) Any civil
-0.035361126	Any female civil
-0.035361126	enable female civil
-0.035361126	a female civil
-0.035361126	where female civil
-0.3584089	of a civil
-0.3584089	as a civil
-0.6267598	a pregnant civil
-0.6267598	for those civil
-0.47994155	to each civil
-0.47994155	regarding each civil
-0.6267598	) make civil
-0.2761491	of civil servants
-0.1635046	to civil servants
-0.31968892	female civil servants
-0.2761491	those civil servants
-0.2761491	make civil servants
-0.9004934	servants to improve
-0.89231735	care of their
-0.63638675	to improve their
-0.63638675	upon ascertaining their
-0.63638675	them about their
-0.82505673	improve their competence
-1.4726943	government institution and
-1.2725881	civil servants and
-0.6026849	their competence and
-0.5799668	, education and
-1.3553584	civil servant and
-0.74631774	the health and
-1.1774375	this Proclamation and
-0.6026849	could breastfeed and
-0.46475208	necessary tools and
-0.46475208	such tools and
-0.86678135	and materials and
-0.74631774	properly use and
-0.74631774	the laws and
-0.6026849	Nations Nationalities and
-0.30130813	, nationalities and
-0.6026849	, strategies and
-0.86678135	job description and
-0.70571744	occupational safety and
-0.4754166	the public and
-0.6026849	the Constitution and
-0.6026849	whole energy and
-0.6026849	political interest and
-0.6026849	handle equipment and
-0.9004934	and to assume
-0.6407533	to assume decision
-0.6407533	assume decision making
-0.6407533	decision making positions
-1.5155592	government institution .
-1.3124772	civil servants .
-0.61178726	making positions .
-0.5884448	and training .
-0.98146546	of work .
-0.6916405	this Proclamation .
-0.61178726	after delivery .
-0.61178726	one year .
-0.8836512	and materials .
-0.61178726	requires assistance .
-0.61178726	and Peoples .
-0.8836512	and peoples .
-0.61178726	temporary employee .
-0.61178726	copy thereof .
-0.8836512	the law .
-0.8836512	to him .
-0.61178726	health rules .
-1.6233265	2 ) Women
-1.5415425	1 ) be
-1.1336468	6 ) be
-0.89386	directives to be
-0.6393519	institution shall be
-0.42132992	Women shall be
-0.42132992	she shall be
-0.42132992	implementation shall be
-0.23213841	disabilities shall be
-0.88441944	certificate , be
-0.8248148	shall be entitled
-0.48814565	affirmative actions in
-0.62485975	time spent in
-0.830286	of personnel in
-0.62485975	affirmative action in
-0.62485975	data organized in
-0.62485975	information contained in
-0.62485975	any document in
-0.62485975	functions specified in
-0.62485975	not engage in
-0.62485975	a value in
-0.35413662	actions in recruitment
-0.78566426	action in recruitment
-0.6399505	assumed through recruitment
-1.2440473	servant shall ,
-0.677268	in recruitment ,
-0.677268	, promotion ,
-0.58164924	, transfer ,
-0.58164924	, redeployment ,
-0.6044902	; provided ,
-0.6044902	, however ,
-0.8701033	medical certificate ,
-0.6044902	the fetus ,
-1.1833425	this Proclamation ,
-1.0082424	with disabilities ,
-0.70800734	) Nations ,
-0.6044902	of nations ,
-0.70800734	government policies ,
-0.70800734	, religion ,
-0.6044902	of gender ,
-0.6044902	, language ,
-0.6044902	, ethnicity ,
-0.6044902	political stand ,
-0.70800734	medical examination ,
-0.6044902	/ AIDS ,
-0.8409865	recruitment , promotion
-0.88657755	recruitment or promotion
-0.84221	promotion , transfer
-0.84221	transfer , redeployment
-0.84221	redeployment , education
-0.84322524	education and training
-1.4703195	3 ) It
-1.3828433	5 ) It
-0.31224695	) It is
-0.8803998	duties or is
-0.49465287	working environment is
-0.63638675	servant which is
-0.36707458	It is prohibited
-1.1404802	prohibited to assign
-0.8749076	responsibility to assign
-0.37375167	records of a
-0.87087953	servant to a
-0.7620334	personnel in a
-0.7620334	organized in a
-0.3073512	to assign a
-0.8542831	gift or a
-0.7572166	recommended by a
-0.7572166	authorized by a
-0.7291786	not discharge a
-0.7291786	representations within a
-0.62108445	shall establish a
-0.809873	to have a
-0.77214766	present having a
-0.57314765	status as a
-0.57314765	render as a
-1.1598003	assign a pregnant
-0.1635046	Any civil servant
-0.31968892	female civil servant
-0.18481013	a civil servant
-0.2761491	pregnant civil servant
-0.1635046	each civil servant
-0.877895	to a position
-1.1756952	than the position
-0.63638675	to another position
-0.8762791	use his position
-0.8850992	prejudice to other
-0.87444055	examination , other
-0.8096078	a position other
-0.8704211	disability or other
-0.8592223	prescribed by other
-0.74140227	Any person other
-0.8431838	in any other
-0.3430644	, other than
-0.3430644	position other than
-0.3430644	person other than
-0.6202338	provision of the
-0.6202338	service of the
-0.6202338	matters of the
-0.6202338	consideration of the
-0.6905103	or to the
-0.57683444	due to the
-0.57683444	environment to the
-0.57683444	loyal to the
-0.57683444	ability to the
-0.57683444	service to the
-0.6122788	institution and the
-0.6122788	description and the
-0.30448055	public and the
-0.7459454	spent in the
-0.7459454	document in the
-0.47856402	other than the
-0.884581	babies ; the
-0.40606973	or by the
-0.2254907	issued by the
-0.40606973	required by the
-0.71262366	) discharge the
-0.75570256	them with the
-0.75570256	compliance with the
-0.23075804	pay for the
-0.23075804	issued for the
-0.23075804	applicable for the
-0.23075804	him for the
-0.60812336	not attained the
-0.6184314	shall have the
-0.60812336	be given the
-0.60812336	shall register the
-0.75390667	clients on the
-0.60812336	and respect the
-0.60812336	effectively execute the
-0.60812336	) serve the
-0.60812336	religion at the
-0.8905973	fetus , she
-0.8238301	the position she
-0.75457144	position she assumed
-0.6407533	she assumed through
-1.5155592	government institution or
-0.71728957	through recruitment or
-1.4058084	civil servant or
-0.7815247	another position or
-0.7590407	her health or
-0.61178726	her pregnancy or
-0.71728957	physical disability or
-1.0227429	personnel records or
-0.61178726	court order or
-0.61178726	made known or
-0.61178726	religious practices or
-0.71728957	any activity or
-0.61178726	own faith or
-0.61178726	his duties or
-0.61178726	not solicit or
-0.61178726	any gift or
-0.61178726	he renders or
-0.7149503	or promotion ;
-0.98073196	civil servant ;
-0.9771772	of work ;
-0.60995144	their babies ;
-0.7149503	as such ;
-0.7564661	and laws ;
-0.88022435	the law ;
-0.7149503	the Government ;
-0.60995144	or activities ;
-0.948118	his job ;
-0.60995144	work plans ;
-0.60995144	their usages ;
-1.0190722	the public ;
-0.60995144	of bias ;
-0.9771772	his service ;
-0.60995144	immediate supervisor ;
-0.7149503	discriminatory practice ;
-0.60995144	of differentiations ;
-0.89260745	promotion ; provided
-0.8919941	provided , however
-0.83936715	, that where
-0.6399505	a nursery where
-0.75457144	that where so
-0.6407533	where so recommended
-1.501142	civil servant by
-0.8638938	order or by
-0.6267598	so recommended by
-0.6267598	when confirmed by
-0.6267598	be determined by
-0.5778031	be issued by
-0.5778031	policies issued by
-0.6267598	Privileges prescribed by
-0.6267598	unless authorized by
-0.6267598	when required by
-0.89231735	up of medical
-1.1460025	by a medical
-0.86595285	confirmed by medical
-0.8575733	submit for medical
-0.6498872	a medical certificate
-0.6498872	by medical certificate
-0.9394949	medical certificate due
-1.6184325	to the risk
-1.1783111	treatment of her
-0.89681995	risk to her
-0.638338	Proclamation during her
-0.8893493	safety and health
-1.5992073	to the health
-0.7967856	to her health
-1.6184325	to the fetus
-1.4971907	shall be transferred
-0.9004934	transferred to another
-0.8991764	at the place
-0.88657755	position or place
-0.37868288	place of work
-0.75143504	proved necessary work
-0.7967856	based on work
-0.6896471	7 ) not
-0.6896471	9 ) not
-0.6896471	10 ) not
-0.6896471	11 ) not
-1.4173899	institution shall not
-0.8249965	staff shall not
-0.83373994	which is not
-0.63638675	who has not
-1.465143	5 ) discharge
-1.1201633	shall not discharge
-0.8700943	servant by way
-0.6399505	a modern way
-0.8983774	way of retrenchment
-0.6399505	of retrenchment pursuant
-0.6399505	to it pursuant
-1.1865057	pursuant to Article
-1.2511132	of this Article
-0.75457144	to Article 87
-0.64580786	) of this
-0.64580786	87 of this
-0.31520304	implementation of this
-0.31520304	provisions of this
-0.35885686	of this Proclamation
-1.3160343	this Proclamation during
-0.8002686	during her pregnancy
-0.88657755	pregnancy or within
-0.6399505	lesser representations within
-0.75457144	or within four
-0.6407533	within four months
-0.6407533	four months after
-0.6407533	months after delivery
-0.84647024	shall , when
-0.84647024	AIDS , when
-0.9394949	, when confirmed
-0.86979973	, be entitle
-0.9004934	entitle to leave
-0.8498915	civil servants with
-0.6286682	to leave with
-0.4811323	) Persons with
-0.4811323	to Persons with
-0.78292567	provide them with
-0.6286682	to persons with
-0.6286682	their compliance with
-0.6286682	otherwise conflict with
-0.6286682	is incompatible with
-0.8747993	leave with pay
-0.630585	with pay for
-0.7871215	directives issued for
-0.630585	proper assistant for
-0.630585	be applicable for
-0.9194942	to him for
-0.630585	) submit for
-0.74140227	than examination for
-1.4733754	for the time
-0.6407533	the time spent
-1.1887399	in the follow
-0.6407533	the follow up
-0.8241239	of medical treatment
-0.75352836	avoid discriminatory treatment
-0.8002686	of her child
-0.6399505	her child who
-0.75352836	a person who
-0.75457144	child who has
-0.8651122	has not attained
-0.90042305	attained the age
-0.8983774	age of one
-0.6407533	of one year
-1.6689095	institution shall establish
-0.88528264	establish a nursery
-1.4630885	civil servants could
-0.6407533	servants could breastfeed
-0.8002686	and take care
-0.82505673	of their babies
-0.90042305	; the details
-0.8972615	details of its
-0.36678934	ensure that its
-0.6763098	for the implementation
-0.75352836	of its implementation
-1.4971907	shall be determined
-0.8918877	Proclamation and directives
-0.8700943	determined by directives
-0.8657148	to be issued
-0.75143504	and directives issued
-0.75143504	and policies issued
-1.4654084	by the appropriate
-1.6812537	1 ) Persons
-1.349226	Applicable to Persons
-1.1402805	Persons with Disabilities
-0.53223276	servants with disabilities
-0.53223276	Persons with disabilities
-0.45023122	persons with disabilities
-1.6180551	2 ) ensure
-1.6640637	institution shall ensure
-0.34597975	that its working
-0.75352836	create conducive working
-0.25989544	its working environment
-0.48862687	conducive working environment
-1.0770783	environment is conducive
-0.6399505	) create conducive
-1.5502051	3 ) provide
-0.884995	who shall provide
-0.88779736	disabilities , provide
-0.7967856	, provide them
-0.638338	and train them
-0.638338	and orient them
-1.186322	with the necessary
-0.6399505	) proved necessary
-0.75352836	the necessary tools
-0.75352836	use such tools
-0.3783027	tools and materials
-0.89315355	materials and train
-0.8002686	train them how
-0.89681995	how to use
-1.3356116	) not use
-0.638338	) properly use
-0.79911	to use such
-0.79948	classified as such
-1.1817689	or to have
-0.89944303	institution shall have
-0.52679205	servant shall have
-1.1153094	shall not have
-1.1887399	have the responsibility
-1.5448866	) Any person
-1.1572409	assign a person
-0.8002686	shall provide proper
-0.6407533	provide proper assistant
-0.8611092	assistant for those
-1.1385295	servants with disability
-0.6399505	, physical disability
-0.8406385	disability that requires
-0.6407533	that requires assistance
-1.5620742	4 ) Privileges
-0.6407533	) Privileges prescribed
-0.8893493	strategies and laws
-0.8580415	by other laws
-0.8966764	execute the laws
-0.9004934	laws to persons
-1.4971907	shall be applicable
-1.3526791	Applicable to Minority
-1.6180551	2 ) Nations
-0.6399505	to Minority Nations
-0.75457144	Minority Nations Nationalities
-0.89315355	Nationalities and Peoples
-1.5638138	1 ) The
-1.5052136	2 ) The
-0.9394949	) The placement
-0.889629	placement of personnel
-1.1704686	access to personnel
-1.1699746	in the personnel
-0.63444424	keep relevant personnel
-1.1370237	in his personnel
-1.0115553	shall take into
-0.6407533	take into account
-0.6407533	into account fair
-0.6407533	account fair representation
-0.8983774	representation of nations
-0.84647024	Nations , nationalities
-0.84647024	nations , nationalities
-0.3783027	nationalities and peoples
-0.9347028	and peoples having
-0.7967856	country without having
-0.638338	a present having
-0.8002686	peoples having lesser
-0.6407533	having lesser representations
-1.4971907	shall be given
-0.90042305	given the advantage
-0.80054337	of affirmative action
-1.3438218	training . 51
-0.9013556	51 ) Personnel
-0.6407533	) Personnel Records
-1.4608476	and the Ministry
-0.9378992	) The Ministry
-1.1647444	Ministry shall keep
-0.6407533	shall keep relevant
-0.84252614	relevant personnel data
-0.6407533	personnel data organized
-1.1598003	in a modern
-0.75457144	modern way regarding
-0.89927125	description to each
-0.6399505	way regarding each
-0.8879743	servant or temporary
-0.6407533	or temporary employee
-1.1647444	Ministry shall register
-0.90042305	register the human
-0.6407533	the human resource
-0.6399505	human resource information
-0.6399505	to all information
-0.75457144	resource information sent
-0.9004934	sent to it
-1.1888766	pursuant to sub-article
-0.6407533	to sub-article (
-0.75457144	this Article upon
-0.6407533	Article upon ascertaining
-0.82505673	ascertaining their compliance
-0.8597262	to other provisions
-1.186322	with the provisions
-1.308997	shall have right
-0.89927125	right to access
-0.83936715	not have access
-1.1888766	access to all
-0.75457144	all information contained
-0.87126243	orders of his
-0.87087953	related to his
-0.7620334	contained in his
-0.7620334	specified in his
-0.76828116	conflict with his
-0.76828116	incompatible with his
-0.77214766	not use his
-0.77214766	servant without his
-0.62108445	and evaluate his
-0.62108445	) devote his
-0.62108445	practice reflecting his
-0.62108445	that compromise his
-0.62108445	to advance his
-0.62108445	of doing his
-0.23200814	to personnel records
-0.23200814	the personnel records
-0.23200814	his personnel records
-0.88528264	have a copy
-0.6407533	a copy thereof
-1.1887399	than the concerned
-0.6407533	the concerned administrative
-0.6407533	concerned administrative staff
-1.5895069	civil servant without
-0.638338	the country without
-0.8836209	without his consent
-0.6407533	his consent unless
-0.6407533	consent unless authorized
-1.1598003	by a court
-0.6407533	a court order
-1.4654084	by the provision
-1.3780403	of the law
-0.8748413	respect the law
-1.1888766	prohibited to deposit
-0.85840845	engage in any
-0.87444055	Proclamation , any
-0.78566253	without having any
-0.630585	to deposit any
-0.74140227	free from any
-0.630585	from exercising any
-0.630585	or accept any
-0.85929364	deposit any document
-1.6101032	civil servant which
-0.8651122	is not made
-0.6407533	not made known
-0.8879743	known or informed
-0.8749076	informed to him
-0.8749076	supplied to him
-0.9013556	52 ) Responsibilities
-0.8972615	Responsibilities of Government
-1.4608476	by the Government
-0.75457144	of Government Institutions
-0.8002686	<s> without prejudice
-1.308997	shall have responsibilities
-0.89927125	responsibilities to :
-0.6399505	following obligations :
-1.686772	1 ) make
-1.4630885	civil servants fully
-0.6407533	servants fully aware
-0.85389763	of government policies
-0.8918877	laws and policies
-0.8919941	policies , strategies
-1.0792785	environment is free
-0.6399505	is free from
-0.6399505	be reserved from
-0.742854	having any form
-0.742854	from any form
-1.1847756	form of religious
-0.6407533	of religious practices
-0.8879743	practices or activities
-0.79911	) provide job
-1.0391496	in his job
-0.81702423	doing his job
-0.58923465	provide job description
-0.70669043	his job description
-0.89315355	servant and evaluate
-0.8836209	evaluate his performance
-0.6407533	his performance based
-1.6645815	government institution on
-0.638338	performance based on
-0.638338	of clients on
-0.82505673	on work plans
-1.5620742	4 ) proved
-0.82505673	necessary work appliances
-0.89315355	servants and orient
-0.8002686	orient them about
-0.82505673	about their usages
-1.4688433	5 ) create
-0.8918877	health and safety
-0.6399505	observe occupational safety
-0.9013556	54 ) Obligations
-1.1887399	have the following
-0.6407533	the following obligations
-1.1311114	) be loyal
-1.0411243	of the public
-1.0926113	to the public
-0.7387593	serve the public
-1.4654084	and the Constitution
-0.89315355	Constitution and respect
-1.6233265	2 ) effectively
-0.6407533	) effectively execute
-1.5620742	3 ) serve
-1.4654084	and the country
-1.1847756	form of bias
-1.5620742	4 ) devote
-0.8836209	devote his whole
-0.6407533	his whole energy
-0.89315355	energy and ability
-1.374307	of the service
-1.4939349	to the service
-0.81702423	to his service
-0.81702423	compromise his service
-0.90042305	discharge the functions
-0.6407533	the functions specified
-1.4654084	and the lawful
-0.6407533	the lawful orders
-0.8836209	of his immediate
-0.6407533	his immediate supervisor
-1.1311114	) be reserved
-0.75457144	reserved from exercising
-0.8597262	any other activity
-0.85801363	exercising any activity
-0.88657755	activity or practice
-0.75352836	exercise discriminatory practice
-0.75457144	or practice reflecting
-0.8836209	reflecting his own
-0.6407533	his own faith
-0.8905973	ethnicity , religion
-0.88657755	faith or religion
-0.75457144	or religion at
-1.3477764	) not disclose
-0.6407533	not disclose confidential
-0.6407533	disclose confidential matters
-1.68051	government institution classified
-0.638338	institution classified as
-0.638338	his status as
-0.638338	to render as
-0.9013556	8 ) avoid
-0.6399505	) avoid discriminatory
-0.6399505	thereby exercise discriminatory
-1.1847756	treatment of clients
-0.90042305	on the basis
-0.8983774	basis of gender
-0.8919941	gender , language
-0.8919941	language , ethnicity
-0.8905973	religion , political
-0.88226736	advance his political
-0.75457144	, political stand
-0.8919941	stand , physical
-0.8605651	or other forms
-0.8983774	forms of differentiations
-1.3477764	) not engage
-0.8406385	activity that compromise
-0.8879743	institution or otherwise
-0.6407533	or otherwise conflict
-1.1566787	with his duties
-0.8406385	or is incompatible
-1.1566787	with his status
-0.9004934	position to advance
-0.75457144	his political interest
-0.89315355	interest and thereby
-0.6407533	and thereby exercise
-1.3477764	) not solicit
-0.8879743	solicit or accept
-0.85929364	accept any gift
-0.88528264	or a present
-0.88528264	having a value
-0.8739769	value in consideration
-1.0526297	the service he
-0.6407533	service he renders
-0.8879743	renders or expected
-0.9004934	expected to render
-0.9013556	12 ) properly
-0.89315355	use and handle
-0.6407533	and handle equipment
-0.89315355	equipment and implements
-0.6407533	and implements supplied
-1.4733754	for the purpose
-0.8983774	purpose of doing
-0.9013556	13 ) submit
-1.0811412	other than examination
-0.8241239	for medical examination
-0.8611092	examination for HIV
-0.6407533	for HIV /
-0.6407533	HIV / AIDS
-0.9394949	, when required
-0.8002686	institution on sufficient
-0.6407533	on sufficient grounds
-0.6407533	sufficient grounds related
-0.9013556	14 ) observe
-0.6407533	) observe occupational
-0.8002686	and health rules

\end\
